<?xml version="1.0"?>
<opencv_storage>
<stage5>
  <maxWeakCount>8</maxWeakCount>
  <stageThreshold>-9.0582990646362305e-01</stageThreshold>
  <weakClassifiers>
    <_>
      <internalNodes>
        0 -1 1248674 -2.1497337147593498e-03</internalNodes>
      <leafValues>
        -4.2307692766189575e-01 5.4255318641662598e-01</leafValues></_>
    <_>
      <internalNodes>
        0 -1 1969991 -1.3422128977254033e-03</internalNodes>
      <leafValues>
        5.8910733461380005e-01 -3.2858747243881226e-01</leafValues></_>
    <_>
      <internalNodes>
        0 -1 2567236 -1.8240943551063538e-02</internalNodes>
      <leafValues>
        9.3741500377655029e-01 -2.2807531058788300e-01</leafValues></_>
    <_>
      <internalNodes>
        0 -1 2050919 5.0887104589492083e-04</internalNodes>
      <leafValues>
        -2.0237386226654053e-01 8.7330442667007446e-01</leafValues></_>
    <_>
      <internalNodes>
        0 -1 2400082 -8.3479974418878555e-03</internalNodes>
      <leafValues>
        -5.6354498863220215e-01 4.3864631652832031e-01</leafValues></_>
    <_>
      <internalNodes>
        0 -1 1614114 -8.1971578765660524e-04</internalNodes>
      <leafValues>
        9.5915371179580688e-01 -2.1098774671554565e-01</leafValues></_>
    <_>
      <internalNodes>
        0 -1 1688193 4.7550416638841853e-05</internalNodes>
      <leafValues>
        -2.7424108982086182e-01 7.2864735126495361e-01</leafValues></_>
    <_>
      <internalNodes>
        0 -1 2981444 -2.8477120213210583e-04</internalNodes>
      <leafValues>
        -7.9927438497543335e-01 3.5942736268043518e-01</leafValues></_></weakClassifiers></stage5>
</opencv_storage>
