<?xml version="1.0"?>
<opencv_storage>
<stage3>
  <maxWeakCount>5</maxWeakCount>
  <stageThreshold>-5.1081633567810059e-01</stageThreshold>
  <weakClassifiers>
    <_>
      <internalNodes>
        0 -1 1335348 3.2622464932501316e-03</internalNodes>
      <leafValues>
        5.1658767461776733e-01 -1.</leafValues></_>
    <_>
      <internalNodes>
        0 -1 2076583 -1.5675161033868790e-02</internalNodes>
      <leafValues>
        8.1619811058044434e-01 -3.4654650092124939e-01</leafValues></_>
    <_>
      <internalNodes>
        0 -1 1430057 3.8706704799551517e-05</internalNodes>
      <leafValues>
        -4.6210774779319763e-01 5.8747619390487671e-01</leafValues></_>
    <_>
      <internalNodes>
        0 -1 1333305 1.9190125167369843e-03</internalNodes>
      <leafValues>
        -4.9080741405487061e-01 5.1467454433441162e-01</leafValues></_>
    <_>
      <internalNodes>
        0 -1 573292 -2.9103562701493502e-04</internalNodes>
      <leafValues>
        -9.0830004215240479e-01 2.7205765247344971e-01</leafValues></_></weakClassifiers></stage3>
</opencv_storage>
